digraph Tree {
node [shape=box] ;
0 [label="X[1] <= 2006.5\nmse = 335901445.285\nsamples = 700\nvalue = 30687.163"] ;
1 [label="X[1] <= 2002.5\nmse = 22418651.584\nsamples = 232\nvalue = 10484.138"] ;
0 -> 1 [labeldistance=2.5, labelangle=45, headlabel="True"] ;
11 [label="mse = 8308759.625\nsamples = 126\nvalue = 7610.421"] ;
1 -> 11 ;
12 [label="mse = 17705810.798\nsamples = 106\nvalue = 13900.066"] ;
1 -> 12 ;
2 [label="X[1] <= 2009.5\nmse = 188662621.702\nsamples = 468\nvalue = 40702.338"] ;
0 -> 2 [labeldistance=2.5, labelangle=-45, headlabel="False"] ;
3 [label="X[0] <= 71529.5\nmse = 58921032.614\nsamples = 253\nvalue = 31518.055"] ;
2 -> 3 ;
7 [label="X[0] <= 36959.0\nmse = 57747238.357\nsamples = 138\nvalue = 35214.652"] ;
3 -> 7 ;
15 [label="mse = 113325043.28\nsamples = 25\nvalue = 41834.4"] ;
7 -> 15 ;
16 [label="mse = 33611443.829\nsamples = 113\nvalue = 33750.106"] ;
7 -> 16 ;
8 [label="mse = 24254439.32\nsamples = 115\nvalue = 27082.139"] ;
3 -> 8 ;
4 [label="X[1] <= 2011.5\nmse = 125272531.922\nsamples = 215\nvalue = 51509.888"] ;
2 -> 4 ;
5 [label="X[0] <= 44640.0\nmse = 59659022.629\nsamples = 113\nvalue = 45039.159"] ;
4 -> 5 ;
13 [label="mse = 59519795.449\nsamples = 65\nvalue = 48410.538"] ;
5 -> 13 ;
14 [label="mse = 23612871.646\nsamples = 48\nvalue = 40473.75"] ;
5 -> 14 ;
6 [label="X[0] <= 31667.0\nmse = 100188095.501\nsamples = 102\nvalue = 58678.441"] ;
4 -> 6 ;
9 [label="X[0] <= 12411.5\nmse = 73254010.906\nsamples = 70\nvalue = 62465.471"] ;
6 -> 9 ;
17 [label="mse = 69459258.883\nsamples = 14\nvalue = 70692.214"] ;
9 -> 17 ;
18 [label="mse = 53052918.276\nsamples = 56\nvalue = 60408.786"] ;
9 -> 18 ;
10 [label="mse = 59107371.715\nsamples = 32\nvalue = 50394.312"] ;
6 -> 10 ;
}